#ifndef MODEL_H
#define MODEL_H

#define NUM_CLASSES 4
#define NUM_FEATURES 16

const float weights[NUM_CLASSES][NUM_FEATURES] = {
  {  0.80928,  0.88914, -0.30164,  0.34241,  0.66655, -0.66655, -0.16365,
     1.11395,  0.48355,  0.37173, -0.60077, -0.37173, -1.20240,  0.50660,
    -1.38958,  0.59714 },

  {  0.07581,  0.01722,  0.07683, -0.18926,  0.29858, -0.29858,  0.03928,
    -0.85816, -0.35980, -0.09153,  0.30979,  0.09153,  0.91573,  1.73807,
     0.60110,  1.69574 },

  {  0.18972,  0.20255,  0.14154, -0.27387,  0.48601, -0.48601,  0.06689,
    -0.84070,  0.22468,  0.07069,  0.45878, -0.07069,  0.97583, -1.88616,
     0.75878, -1.87651 },

  { -0.97449, -0.97089,  0.04418,  0.06808, -1.21163,  1.21163,  0.03763,
     0.41390, -0.20315, -0.13112, -0.11823,  0.13112, -0.47750, -0.04107,
     0.00879, -0.04991 }
};

const float biases[NUM_CLASSES] = {
  -2.92555, -2.15191, -2.68043, -0.46425
};

const float min_vals[NUM_FEATURES] = {
  -0.97632, -0.97876, -0.35634,  0.00223,  0.00000,  0.00000, -0.41138,
   0.08923,  0.97189,  0.00000,  0.01163,  0.00000,  0.00115, -0.92182,
   1.07546, -0.92908
};

const float max_vals[NUM_FEATURES] = {
   1.00659,  1.00582,  0.21416,  0.14486, 20.00000, 20.00000,  0.21405,
   1.01183,  1.01903, 20.00000,  0.31046, 20.00000,  0.85776,  0.92269,
   1.54036,  0.93878
};

const float scale[NUM_FEATURES] = {
   1.00862,  1.00777,  3.50576, 14.02304,  0.10000,  0.10000,  3.19783,
   2.16779, 42.42835,  0.10000,  6.69269,  0.10000,  2.33479,  1.08430,
   4.30205,  1.07074
};

#endif
