#ifndef MODEL_H
#define MODEL_H

#define NUM_CLASSES 4
#define NUM_FEATURES 16

const float weights[NUM_CLASSES][NUM_FEATURES] = {
    {6.59163, 6.98796, -0.23697, -19.91177, 2.03574, -2.37510, 0.09835, 9.88232, -6.72422, 0.36456, 2.26066, -0.82085, 11.76201, 2.07622, -5.97882, 1.33864},
    {3.03913, 2.96162, 10.83039, 12.74561, 3.72666, -4.39413, 10.18027, -11.35268, 1.98663, -3.45073, -0.45215, 2.82482, -3.12435, -2.62663, 1.65702, -2.33143},
    {2.29614, 2.17533, -11.67315, 12.70060, -0.47019, -0.16596, -11.44951, -5.57496, 3.76495, 1.79044, -0.85308, -2.42538, -9.81070, -1.82736, 7.98619, -1.55025},
    {-7.58992, -7.64906, 0.73872, -10.22068, -3.24397, 3.23094, 0.76508, 9.51550, -2.73674, -1.80651, -0.47947, 1.75091, 0.71460, 0.81978, 0.25712, 0.72411},
};

const float biases[NUM_CLASSES] = {
    -12.75730, -19.85388, -1.24971, -0.05602};

const float min_vals[NUM_FEATURES] = {
    -1.00500, -1.00510, -1.02430, 0.00000, 0.00000, 0.00000, -1.02400, 0.00000, 0.78322, 0.00000, 0.00000, 0.00000, 0.00000, -0.56600, 0.84110, -0.56600};

const float max_vals[NUM_FEATURES] = {
    1.04350, 1.04360, 1.12760, 1.27148, 10.00000, 10.00000, 1.12800, 1.08910, 1.16635, 10.00000, 0.36830, 10.00000, 0.79568, 0.89200, 1.87780, 0.89300};

const float scale[NUM_FEATURES] = {
    0.48816, 0.48811, 0.46471, 0.78648, 0.10000, 0.10000, 0.46468, 0.91819, 2.61013, 0.10000, 2.71516, 0.10000, 1.25678, 0.68587, 0.96460, 0.68540};

#endif
